<?xml version="1.0"?>
<opencv_storage>
<stage1>
  <maxWeakCount>6</maxWeakCount>
  <stageThreshold>-5.1988059282302856e-01</stageThreshold>
  <weakClassifiers>
    <_>
      <internalNodes>
        0 -1 53715 -5.4673254489898682e-03</internalNodes>
      <leafValues>
        9.2243766784667969e-01 -5.2112674713134766e-01</leafValues></_>
    <_>
      <internalNodes>
        0 -1 93031 4.3464740738272667e-03</internalNodes>
      <leafValues>
        -4.5179623365402222e-01 8.4659677743911743e-01</leafValues></_>
    <_>
      <internalNodes>
        0 -1 98823 4.1392785497009754e-03</internalNodes>
      <leafValues>
        -3.5747134685516357e-01 9.8770976066589355e-01</leafValues></_>
    <_>
      <internalNodes>
        0 -1 39647 -5.9435147792100906e-02</internalNodes>
      <leafValues>
        9.8316752910614014e-01 -4.9836486577987671e-01</leafValues></_>
    <_>
      <internalNodes>
        0 -1 482 9.7610373049974442e-03</internalNodes>
      <leafValues>
        -9.0682703256607056e-01 5.8568781614303589e-01</leafValues></_>
    <_>
      <internalNodes>
        0 -1 98823 3.3634256105870008e-03</internalNodes>
      <leafValues>
        -5.6421977281570435e-01 9.3720793724060059e-01</leafValues></_></weakClassifiers></stage1>
</opencv_storage>
