<?xml version="1.0"?>
<opencv_storage>
<stage2>
  <maxWeakCount>6</maxWeakCount>
  <stageThreshold>-2.5786662101745605e-01</stageThreshold>
  <weakClassifiers>
    <_>
      <internalNodes>
        0 -1 90021 5.5024782195687294e-03</internalNodes>
      <leafValues>
        -4.8807629942893982e-01 8.2749325037002563e-01</leafValues></_>
    <_>
      <internalNodes>
        0 -1 675 1.4550540596246719e-02</internalNodes>
      <leafValues>
        -8.8278806209564209e-01 5.2756536006927490e-01</leafValues></_>
    <_>
      <internalNodes>
        0 -1 125196 3.5713666875381023e-05</internalNodes>
      <leafValues>
        3.1693547964096069e-01 -1.</leafValues></_>
    <_>
      <internalNodes>
        0 -1 125196 -5.8963043557014316e-05</internalNodes>
      <leafValues>
        -8.7359696626663208e-01 4.8657605051994324e-01</leafValues></_>
    <_>
      <internalNodes>
        0 -1 44613 1.9529175013303757e-02</internalNodes>
      <leafValues>
        -5.1614040136337280e-01 9.2950415611267090e-01</leafValues></_>
    <_>
      <internalNodes>
        0 -1 109186 1.7090644687414169e-02</internalNodes>
      <leafValues>
        -5.8472681045532227e-01 9.7088605165481567e-01</leafValues></_></weakClassifiers></stage2>
</opencv_storage>
