<?xml version="1.0"?>
<opencv_storage>
<stage1>
  <maxWeakCount>8</maxWeakCount>
  <stageThreshold>-2.7788370847702026e-01</stageThreshold>
  <weakClassifiers>
    <_>
      <internalNodes>
        0 -1 53715 -6.3104601576924324e-03</internalNodes>
      <leafValues>
        9.5266270637512207e-01 -4.8640483617782593e-01</leafValues></_>
    <_>
      <internalNodes>
        0 -1 9225 -1.0404526256024837e-02</internalNodes>
      <leafValues>
        5.6753498315811157e-01 -8.7863188982009888e-01</leafValues></_>
    <_>
      <internalNodes>
        0 -1 22348 4.1284143924713135e-02</internalNodes>
      <leafValues>
        4.1626742482185364e-01 -9.0818148851394653e-01</leafValues></_>
    <_>
      <internalNodes>
        0 -1 121690 -4.9089900130638853e-05</internalNodes>
      <leafValues>
        -9.8622435331344604e-01 3.5472074151039124e-01</leafValues></_>
    <_>
      <internalNodes>
        0 -1 68325 3.4918936435133219e-03</internalNodes>
      <leafValues>
        -6.2371152639389038e-01 6.9701874256134033e-01</leafValues></_>
    <_>
      <internalNodes>
        0 -1 118816 -4.9026504158973694e-02</internalNodes>
      <leafValues>
        9.8962473869323730e-01 -4.2502936720848083e-01</leafValues></_>
    <_>
      <internalNodes>
        0 -1 70640 -4.5957579277455807e-03</internalNodes>
      <leafValues>
        9.4934457540512085e-01 -4.7178411483764648e-01</leafValues></_>
    <_>
      <internalNodes>
        0 -1 85022 4.0840115398168564e-03</internalNodes>
      <leafValues>
        -9.6986871957778931e-01 5.1595956087112427e-01</leafValues></_></weakClassifiers></stage1>
</opencv_storage>
