<?xml version="1.0"?>
<opencv_storage>
<cascade>
  <stageType>BOOST</stageType>
  <featureType>HAAR</featureType>
  <height>20</height>
  <width>20</width>
  <stageParams>
    <boostType>GAB</boostType>
    <minHitRate>9.9900001287460327e-01</minHitRate>
    <maxFalseAlarm>5.0000000745058060e-02</maxFalseAlarm>
    <weightTrimRate>9.4999999999999996e-01</weightTrimRate>
    <maxDepth>1</maxDepth>
    <maxWeakCount>100</maxWeakCount></stageParams>
  <featureParams>
    <maxCatCount>0</maxCatCount>
    <featSize>1</featSize>
    <mode>ALL</mode></featureParams>
  <stageNum>4</stageNum>
  <stages>
    <!-- stage 0 -->
    <_>
      <maxWeakCount>8</maxWeakCount>
      <stageThreshold>-7.0732545852661133e-01</stageThreshold>
      <weakClassifiers>
        <_>
          <internalNodes>
            0 -1 15 1.3639418408274651e-02</internalNodes>
          <leafValues>
            -6.6993755102157593e-01 8.5437995195388794e-01</leafValues></_>
        <_>
          <internalNodes>
            0 -1 9 3.7511871196329594e-03</internalNodes>
          <leafValues>
            -5.3997951745986938e-01 9.4648814201354980e-01</leafValues></_>
        <_>
          <internalNodes>
            0 -1 2 2.1681327372789383e-02</internalNodes>
          <leafValues>
            -8.6804628372192383e-01 6.1190015077590942e-01</leafValues></_>
        <_>
          <internalNodes>
            0 -1 18 -6.4712101593613625e-03</internalNodes>
          <leafValues>
            9.9246090650558472e-01 -5.2533644437789917e-01</leafValues></_>
        <_>
          <internalNodes>
            0 -1 12 -1.9289376214146614e-02</internalNodes>
          <leafValues>
            7.8405231237411499e-01 -6.4475315809249878e-01</leafValues></_>
        <_>
          <internalNodes>
            0 -1 14 4.9013453535735607e-03</internalNodes>
          <leafValues>
            -4.7715431451797485e-01 9.4643342494964600e-01</leafValues></_>
        <_>
          <internalNodes>
            0 -1 0 1.4436336234211922e-02</internalNodes>
          <leafValues>
            -9.4786113500595093e-01 5.5806362628936768e-01</leafValues></_>
        <_>
          <internalNodes>
            0 -1 20 -4.6138670295476913e-03</internalNodes>
          <leafValues>
            9.7987174987792969e-01 -5.6437498331069946e-01</leafValues></_></weakClassifiers></_>
    <!-- stage 1 -->
    <_>
      <maxWeakCount>8</maxWeakCount>
      <stageThreshold>-2.7788370847702026e-01</stageThreshold>
      <weakClassifiers>
        <_>
          <internalNodes>
            0 -1 7 -6.3104601576924324e-03</internalNodes>
          <leafValues>
            9.5266270637512207e-01 -4.8640483617782593e-01</leafValues></_>
        <_>
          <internalNodes>
            0 -1 1 -1.0404526256024837e-02</internalNodes>
          <leafValues>
            5.6753498315811157e-01 -8.7863188982009888e-01</leafValues></_>
        <_>
          <internalNodes>
            0 -1 3 4.1284143924713135e-02</internalNodes>
          <leafValues>
            4.1626742482185364e-01 -9.0818148851394653e-01</leafValues></_>
        <_>
          <internalNodes>
            0 -1 22 -4.9089900130638853e-05</internalNodes>
          <leafValues>
            -9.8622435331344604e-01 3.5472074151039124e-01</leafValues></_>
        <_>
          <internalNodes>
            0 -1 11 3.4918936435133219e-03</internalNodes>
          <leafValues>
            -6.2371152639389038e-01 6.9701874256134033e-01</leafValues></_>
        <_>
          <internalNodes>
            0 -1 21 -4.9026504158973694e-02</internalNodes>
          <leafValues>
            9.8962473869323730e-01 -4.2502936720848083e-01</leafValues></_>
        <_>
          <internalNodes>
            0 -1 13 -4.5957579277455807e-03</internalNodes>
          <leafValues>
            9.4934457540512085e-01 -4.7178411483764648e-01</leafValues></_>
        <_>
          <internalNodes>
            0 -1 16 4.0840115398168564e-03</internalNodes>
          <leafValues>
            -9.6986871957778931e-01 5.1595956087112427e-01</leafValues></_></weakClassifiers></_>
    <!-- stage 2 -->
    <_>
      <maxWeakCount>6</maxWeakCount>
      <stageThreshold>-2.6834933087229729e-02</stageThreshold>
      <weakClassifiers>
        <_>
          <internalNodes>
            0 -1 19 -5.9253564104437828e-03</internalNodes>
          <leafValues>
            1. -4.6735143661499023e-01</leafValues></_>
        <_>
          <internalNodes>
            0 -1 5 2.7480244636535645e-02</internalNodes>
          <leafValues>
            5.4694092273712158e-01 -9.5462489128112793e-01</leafValues></_>
        <_>
          <internalNodes>
            0 -1 17 1.8211007118225098e-02</internalNodes>
          <leafValues>
            -5.9843206405639648e-01 8.9486414194107056e-01</leafValues></_>
        <_>
          <internalNodes>
            0 -1 23 -3.5643006413010880e-05</internalNodes>
          <leafValues>
            -9.9923694133758545e-01 5.4237461090087891e-01</leafValues></_>
        <_>
          <internalNodes>
            0 -1 8 -4.2974031530320644e-03</internalNodes>
          <leafValues>
            9.7020977735519409e-01 -5.4364913702011108e-01</leafValues></_>
        <_>
          <internalNodes>
            0 -1 6 -1.5702055767178535e-02</internalNodes>
          <leafValues>
            -9.7817075252532959e-01 5.2749645709991455e-01</leafValues></_></weakClassifiers></_>
    <!-- stage 3 -->
    <_>
      <maxWeakCount>2</maxWeakCount>
      <stageThreshold>1.1928429827094078e-02</stageThreshold>
      <weakClassifiers>
        <_>
          <internalNodes>
            0 -1 10 6.3587784767150879e-02</internalNodes>
          <leafValues>
            1. -9.8807156085968018e-01</leafValues></_>
        <_>
          <internalNodes>
            0 -1 4 3.4766331315040588e-02</internalNodes>
          <leafValues>
            1. -9.6695822477340698e-01</leafValues></_></weakClassifiers></_></stages>
  <features>
    <_>
      <rects>
        <_>
          0 0 20 5 -1.</_>
        <_>
          5 0 10 5 2.</_></rects>
      <tilted>0</tilted></_>
    <_>
      <rects>
        <_>
          0 14 7 6 -1.</_>
        <_>
          0 17 7 3 2.</_></rects>
      <tilted>0</tilted></_>
    <_>
      <rects>
        <_>
          0 15 20 5 -1.</_>
        <_>
          5 15 10 5 2.</_></rects>
      <tilted>0</tilted></_>
    <_>
      <rects>
        <_>
          2 3 16 10 -1.</_>
        <_>
          6 3 8 10 2.</_></rects>
      <tilted>0</tilted></_>
    <_>
      <rects>
        <_>
          3 9 12 8 -1.</_>
        <_>
          3 9 6 4 2.</_>
        <_>
          9 13 6 4 2.</_></rects>
      <tilted>0</tilted></_>
    <_>
      <rects>
        <_>
          4 4 12 12 -1.</_>
        <_>
          4 10 12 6 2.</_></rects>
      <tilted>0</tilted></_>
    <_>
      <rects>
        <_>
          5 0 11 10 -1.</_>
        <_>
          5 5 11 5 2.</_></rects>
      <tilted>0</tilted></_>
    <_>
      <rects>
        <_>
          5 10 1 3 -1.</_>
        <_>
          5 11 1 1 3.</_></rects>
      <tilted>0</tilted></_>
    <_>
      <rects>
        <_>
          6 6 2 2 -1.</_>
        <_>
          6 6 1 1 2.</_>
        <_>
          7 7 1 1 2.</_></rects>
      <tilted>0</tilted></_>
    <_>
      <rects>
        <_>
          6 8 3 1 -1.</_>
        <_>
          7 8 1 1 3.</_></rects>
      <tilted>0</tilted></_>
    <_>
      <rects>
        <_>
          7 3 12 12 -1.</_>
        <_>
          7 7 12 4 3.</_></rects>
      <tilted>0</tilted></_>
    <_>
      <rects>
        <_>
          7 6 3 1 -1.</_>
        <_>
          8 6 1 1 3.</_></rects>
      <tilted>0</tilted></_>
    <_>
      <rects>
        <_>
          7 9 6 3 -1.</_>
        <_>
          9 10 2 1 9.</_></rects>
      <tilted>0</tilted></_>
    <_>
      <rects>
        <_>
          7 11 2 2 -1.</_>
        <_>
          7 11 1 1 2.</_>
        <_>
          8 12 1 1 2.</_></rects>
      <tilted>0</tilted></_>
    <_>
      <rects>
        <_>
          7 13 3 1 -1.</_>
        <_>
          8 13 1 1 3.</_></rects>
      <tilted>0</tilted></_>
    <_>
      <rects>
        <_>
          9 7 3 3 -1.</_>
        <_>
          10 8 1 1 9.</_></rects>
      <tilted>0</tilted></_>
    <_>
      <rects>
        <_>
          9 8 10 12 -1.</_>
        <_>
          9 11 10 6 2.</_></rects>
      <tilted>0</tilted></_>
    <_>
      <rects>
        <_>
          9 10 3 3 -1.</_>
        <_>
          10 11 1 1 9.</_></rects>
      <tilted>0</tilted></_>
    <_>
      <rects>
        <_>
          9 13 3 1 -1.</_>
        <_>
          10 13 1 1 3.</_></rects>
      <tilted>0</tilted></_>
    <_>
      <rects>
        <_>
          11 6 3 1 -1.</_>
        <_>
          12 6 1 1 3.</_></rects>
      <tilted>0</tilted></_>
    <_>
      <rects>
        <_>
          11 7 2 2 -1.</_>
        <_>
          11 7 1 1 2.</_>
        <_>
          12 8 1 1 2.</_></rects>
      <tilted>0</tilted></_>
    <_>
      <rects>
        <_>
          16 1 3 13 -1.</_>
        <_>
          17 2 1 13 3.</_></rects>
      <tilted>1</tilted></_>
    <_>
      <rects>
        <_>
          17 0 3 2 -1.</_>
        <_>
          17 1 3 1 2.</_></rects>
      <tilted>0</tilted></_>
    <_>
      <rects>
        <_>
          19 18 1 2 -1.</_>
        <_>
          19 19 1 1 2.</_></rects>
      <tilted>0</tilted></_></features></cascade>
</opencv_storage>
