<?xml version="1.0"?>
<opencv_storage>
<stage0>
  <maxWeakCount>8</maxWeakCount>
  <stageThreshold>-7.0732545852661133e-01</stageThreshold>
  <weakClassifiers>
    <_>
      <internalNodes>
        0 -1 84176 1.3639418408274651e-02</internalNodes>
      <leafValues>
        -6.6993755102157593e-01 8.5437995195388794e-01</leafValues></_>
    <_>
      <internalNodes>
        0 -1 61276 3.7511871196329594e-03</internalNodes>
      <leafValues>
        -5.3997951745986938e-01 9.4648814201354980e-01</leafValues></_>
    <_>
      <internalNodes>
        0 -1 9444 2.1681327372789383e-02</internalNodes>
      <leafValues>
        -8.6804628372192383e-01 6.1190015077590942e-01</leafValues></_>
    <_>
      <internalNodes>
        0 -1 86239 -6.4712101593613625e-03</internalNodes>
      <leafValues>
        9.9246090650558472e-01 -5.2533644437789917e-01</leafValues></_>
    <_>
      <internalNodes>
        0 -1 69940 -1.9289376214146614e-02</internalNodes>
      <leafValues>
        7.8405231237411499e-01 -6.4475315809249878e-01</leafValues></_>
    <_>
      <internalNodes>
        0 -1 71252 4.9013453535735607e-03</internalNodes>
      <leafValues>
        -4.7715431451797485e-01 9.4643342494964600e-01</leafValues></_>
    <_>
      <internalNodes>
        0 -1 424 1.4436336234211922e-02</internalNodes>
      <leafValues>
        -9.4786113500595093e-01 5.5806362628936768e-01</leafValues></_>
    <_>
      <internalNodes>
        0 -1 97435 -4.6138670295476913e-03</internalNodes>
      <leafValues>
        9.7987174987792969e-01 -5.6437498331069946e-01</leafValues></_></weakClassifiers></stage0>
</opencv_storage>
